digraph Tree {
node [shape=box] ;
0 [label="X[3] <= 1.415\nfriedman_mse = 0.2191\nsamples = 74\nvalue = 0.1295"] ;
1 [label="friedman_mse = 0.2495\nsamples = 44\nvalue = 1.7425"] ;
0 -> 1 [labeldistance=2.5, labelangle=45, headlabel="True"] ;
2 [label="friedman_mse = 0.0322\nsamples = 30\nvalue = -0.8578"] ;
0 -> 2 [labeldistance=2.5, labelangle=-45, headlabel="False"] ;
}