digraph Tree {
node [shape=box] ;
0 [label="X[0] <= 0.0085\nmse = 0.0926\nsamples = 700\nvalue = 0.0089"] ;
1 [label="X[0] <= -0.2365\nmse = 0.0286\nsamples = 353\nvalue = -0.2419"] ;
0 -> 1 [labeldistance=2.5, labelangle=45, headlabel="True"] ;
2 [label="X[0] <= -0.3825\nmse = 0.0131\nsamples = 179\nvalue = -0.3609"] ;
1 -> 2 ;
3 [label="X[0] <= -0.4635\nmse = 0.0081\nsamples = 81\nvalue = -0.429"] ;
2 -> 3 ;
4 [label="X[0] <= -0.4995\nmse = 0.0082\nsamples = 20\nvalue = -0.4836"] ;
3 -> 4 ;
5 [label="mse = 0.0\nsamples = 1\nvalue = -0.3376"] ;
4 -> 5 ;
6 [label="mse = 0.0074\nsamples = 19\nvalue = -0.4913"] ;
4 -> 6 ;
7 [label="X[0] <= -0.3835\nmse = 0.0068\nsamples = 61\nvalue = -0.4111"] ;
3 -> 7 ;
8 [label="mse = 0.0066\nsamples = 60\nvalue = -0.4089"] ;
7 -> 8 ;
9 [label="mse = 0.0\nsamples = 1\nvalue = -0.5446"] ;
7 -> 9 ;
10 [label="X[0] <= -0.3295\nmse = 0.0101\nsamples = 98\nvalue = -0.3046"] ;
2 -> 10 ;
11 [label="X[0] <= -0.332\nmse = 0.0083\nsamples = 36\nvalue = -0.3431"] ;
10 -> 11 ;
12 [label="mse = 0.0077\nsamples = 34\nvalue = -0.3363"] ;
11 -> 12 ;
13 [label="mse = 0.004\nsamples = 2\nvalue = -0.4577"] ;
11 -> 13 ;
14 [label="X[0] <= -0.2655\nmse = 0.0098\nsamples = 62\nvalue = -0.2822"] ;
10 -> 14 ;
15 [label="mse = 0.0101\nsamples = 43\nvalue = -0.2662"] ;
14 -> 15 ;
16 [label="mse = 0.0075\nsamples = 19\nvalue = -0.3184"] ;
14 -> 16 ;
17 [label="X[0] <= -0.1265\nmse = 0.0149\nsamples = 174\nvalue = -0.1195"] ;
1 -> 17 ;
18 [label="X[0] <= -0.1955\nmse = 0.0096\nsamples = 84\nvalue = -0.185"] ;
17 -> 18 ;
19 [label="X[0] <= -0.1995\nmse = 0.0065\nsamples = 30\nvalue = -0.213"] ;
18 -> 19 ;
20 [label="mse = 0.0063\nsamples = 26\nvalue = -0.202"] ;
19 -> 20 ;
21 [label="mse = 0.0019\nsamples = 4\nvalue = -0.284"] ;
19 -> 21 ;
22 [label="X[0] <= -0.1655\nmse = 0.0107\nsamples = 54\nvalue = -0.1694"] ;
18 -> 22 ;
23 [label="mse = 0.0087\nsamples = 24\nvalue = -0.1302"] ;
22 -> 23 ;
24 [label="mse = 0.0102\nsamples = 30\nvalue = -0.2008"] ;
22 -> 24 ;
25 [label="X[0] <= -0.0765\nmse = 0.0121\nsamples = 90\nvalue = -0.0583"] ;
17 -> 25 ;
26 [label="X[0] <= -0.1235\nmse = 0.0131\nsamples = 36\nvalue = -0.104"] ;
25 -> 26 ;
27 [label="mse = 0.0047\nsamples = 3\nvalue = 0.0262"] ;
26 -> 27 ;
28 [label="mse = 0.0122\nsamples = 33\nvalue = -0.1158"] ;
26 -> 28 ;
29 [label="X[0] <= -0.075\nmse = 0.0092\nsamples = 54\nvalue = -0.0279"] ;
25 -> 29 ;
30 [label="mse = 0.0\nsamples = 1\nvalue = 0.1295"] ;
29 -> 30 ;
31 [label="mse = 0.0089\nsamples = 53\nvalue = -0.0309"] ;
29 -> 31 ;
32 [label="X[0] <= 0.2795\nmse = 0.0287\nsamples = 347\nvalue = 0.2641"] ;
0 -> 32 [labeldistance=2.5, labelangle=-45, headlabel="False"] ;
33 [label="X[0] <= 0.163\nmse = 0.0143\nsamples = 187\nvalue = 0.1469"] ;
32 -> 33 ;
34 [label="X[0] <= 0.0585\nmse = 0.0108\nsamples = 110\nvalue = 0.0951"] ;
33 -> 34 ;
35 [label="X[0] <= 0.0365\nmse = 0.009\nsamples = 31\nvalue = 0.0411"] ;
34 -> 35 ;
36 [label="mse = 0.0073\nsamples = 18\nvalue = 0.0735"] ;
35 -> 36 ;
37 [label="mse = 0.0077\nsamples = 13\nvalue = -0.0039"] ;
35 -> 37 ;
38 [label="X[0] <= 0.1595\nmse = 0.0099\nsamples = 79\nvalue = 0.1163"] ;
34 -> 38 ;
39 [label="mse = 0.0094\nsamples = 77\nvalue = 0.1194"] ;
38 -> 39 ;
40 [label="mse = 0.0137\nsamples = 2\nvalue = -0.0009"] ;
38 -> 40 ;
41 [label="X[0] <= 0.2455\nmse = 0.0101\nsamples = 77\nvalue = 0.2208"] ;
33 -> 41 ;
42 [label="X[0] <= 0.1825\nmse = 0.0087\nsamples = 52\nvalue = 0.2002"] ;
41 -> 42 ;
43 [label="mse = 0.0035\nsamples = 14\nvalue = 0.1676"] ;
42 -> 43 ;
44 [label="mse = 0.0101\nsamples = 38\nvalue = 0.2122"] ;
42 -> 44 ;
45 [label="X[0] <= 0.2645\nmse = 0.0102\nsamples = 25\nvalue = 0.2638"] ;
41 -> 45 ;
46 [label="mse = 0.0074\nsamples = 13\nvalue = 0.2992"] ;
45 -> 46 ;
47 [label="mse = 0.0104\nsamples = 12\nvalue = 0.2254"] ;
45 -> 47 ;
48 [label="X[0] <= 0.4005\nmse = 0.0107\nsamples = 160\nvalue = 0.401"] ;
32 -> 48 ;
49 [label="X[0] <= 0.3135\nmse = 0.0083\nsamples = 88\nvalue = 0.3555"] ;
48 -> 49 ;
50 [label="X[0] <= 0.2845\nmse = 0.008\nsamples = 20\nvalue = 0.3036"] ;
49 -> 50 ;
51 [label="mse = 0.0008\nsamples = 2\nvalue = 0.3768"] ;
50 -> 51 ;
52 [label="mse = 0.0082\nsamples = 18\nvalue = 0.2955"] ;
50 -> 52 ;
53 [label="X[0] <= 0.315\nmse = 0.0073\nsamples = 68\nvalue = 0.3708"] ;
49 -> 53 ;
54 [label="mse = 0.0\nsamples = 1\nvalue = 0.553"] ;
53 -> 54 ;
55 [label="mse = 0.0069\nsamples = 67\nvalue = 0.368"] ;
53 -> 55 ;
56 [label="X[0] <= 0.4775\nmse = 0.0081\nsamples = 72\nvalue = 0.4566"] ;
48 -> 56 ;
57 [label="X[0] <= 0.475\nmse = 0.0084\nsamples = 55\nvalue = 0.4474"] ;
56 -> 57 ;
58 [label="mse = 0.0077\nsamples = 53\nvalue = 0.4522"] ;
57 -> 58 ;
59 [label="mse = 0.0126\nsamples = 2\nvalue = 0.322"] ;
57 -> 59 ;
60 [label="X[0] <= 0.4955\nmse = 0.0061\nsamples = 17\nvalue = 0.4863"] ;
56 -> 60 ;
61 [label="mse = 0.0037\nsamples = 14\nvalue = 0.499"] ;
60 -> 61 ;
62 [label="mse = 0.0131\nsamples = 3\nvalue = 0.4273"] ;
60 -> 62 ;
}